Language model created by QuickLM on Sat Jul  9 14:31:50 EDT 2016
Copyright (c) 1996-2010 Carnegie Mellon University and Alexander I. Rudnicky

The model is in standard ARPA format, designed by Doug Paul while he was at MITRE.

The code that was used to produce this language model is available in Open Source.
Please visit http://www.speech.cs.cmu.edu/tools/ for more information

The (fixed) discount mass is 0.5. The backoffs are computed using the ratio method.
This model based on a corpus of 12 sentences and 25 words

\data\
ngram 1=25
ngram 2=37
ngram 3=32

\1-grams:
-0.9853 </s> -0.3010
-0.9853 <s> -0.2494
-2.0645 BACH -0.2536
-1.7634 BEETHOVEN -0.2935
-2.0645 COMPUTER -0.2536
-2.0645 FLICKS -0.2536
-1.3655 HAL -0.2366
-2.0645 HI -0.2973
-1.7634 LIGHTS -0.2897
-2.0645 NET -0.2973
-2.0645 OFF -0.2536
-2.0645 OKAY -0.2819
-1.7634 ON -0.2494
-2.0645 PAUSE -0.2536
-2.0645 PIANO -0.2973
-1.4624 PLAY -0.2858
-2.0645 RESPOND -0.2536
-2.0645 SKIP -0.2536
-2.0645 SONATAS -0.2536
-2.0645 STAR -0.2973
-2.0645 SYMPHONIES -0.2536
-2.0645 THERE -0.2536
-2.0645 TREK -0.2935
-1.7634 TURN -0.2935
-2.0645 YOU -0.2973

\2-grams:
-0.7782 <s> HAL -0.0792
-1.3802 <s> HI 0.0000
-1.3802 <s> OKAY 0.0000
-0.7782 <s> PLAY 0.0000
-1.0792 <s> TURN 0.0000
-0.3010 BACH </s> -0.3010
-0.6021 BEETHOVEN PIANO 0.0000
-0.6021 BEETHOVEN SYMPHONIES 0.0000
-0.3010 COMPUTER </s> -0.3010
-0.3010 FLICKS </s> -0.3010
-1.0000 HAL </s> -0.3010
-1.0000 HAL PAUSE 0.0000
-1.0000 HAL RESPOND 0.0000
-1.0000 HAL SKIP 0.0000
-1.0000 HAL YOU 0.0000
-0.3010 HI COMPUTER 0.0000
-0.6021 LIGHTS OFF 0.0000
-0.6021 LIGHTS ON -0.1761
-0.3010 NET FLICKS 0.0000
-0.3010 OFF </s> -0.3010
-0.3010 OKAY HAL -0.2553
-0.6021 ON </s> -0.3010
-0.6021 ON NET 0.0000
-0.3010 PAUSE </s> -0.3010
-0.3010 PIANO SONATAS 0.0000
-0.9031 PLAY BACH 0.0000
-0.6021 PLAY BEETHOVEN 0.0000
-0.9031 PLAY STAR 0.0000
-0.3010 RESPOND </s> -0.3010
-0.3010 SKIP </s> -0.3010
-0.3010 SONATAS </s> -0.3010
-0.3010 STAR TREK 0.0000
-0.3010 SYMPHONIES </s> -0.3010
-0.3010 THERE </s> -0.3010
-0.3010 TREK ON -0.1761
-0.3010 TURN LIGHTS 0.0000
-0.3010 YOU THERE 0.0000

\3-grams:
-0.9031 <s> HAL PAUSE
-0.9031 <s> HAL RESPOND
-0.9031 <s> HAL SKIP
-0.9031 <s> HAL YOU
-0.3010 <s> HI COMPUTER
-0.3010 <s> OKAY HAL
-0.9031 <s> PLAY BACH
-0.6021 <s> PLAY BEETHOVEN
-0.9031 <s> PLAY STAR
-0.3010 <s> TURN LIGHTS
-0.3010 BEETHOVEN PIANO SONATAS
-0.3010 BEETHOVEN SYMPHONIES </s>
-0.3010 HAL PAUSE </s>
-0.3010 HAL RESPOND </s>
-0.3010 HAL SKIP </s>
-0.3010 HAL YOU THERE
-0.3010 HI COMPUTER </s>
-0.3010 LIGHTS OFF </s>
-0.3010 LIGHTS ON </s>
-0.3010 NET FLICKS </s>
-0.3010 OKAY HAL </s>
-0.3010 ON NET FLICKS
-0.3010 PIANO SONATAS </s>
-0.3010 PLAY BACH </s>
-0.6021 PLAY BEETHOVEN PIANO
-0.6021 PLAY BEETHOVEN SYMPHONIES
-0.3010 PLAY STAR TREK
-0.3010 STAR TREK ON
-0.3010 TREK ON NET
-0.6021 TURN LIGHTS OFF
-0.6021 TURN LIGHTS ON
-0.3010 YOU THERE </s>

\end\
